{
  "feature_names": [
    "gw_rtt_p50_ms",
    "gw_rtt_p95_ms",
    "gw_loss_pct",
    "wan_rtt_p50_ms",
    "wan_rtt_p95_ms",
    "wan_loss_pct",
    "delta_rtt_p50_ms",
    "dns_ms_p50",
    "dns_fail_rate",
    "http_fail_rate",
    "tcp_fail_rate",
    "wan_down_mbps",
    "wan_up_mbps"
  ],
  "class_names": [
    "wifi",
    "router",
    "isp"
  ],
  "weights": [
    [
      2.551140102826046,
      2.0620085471649694,
      -0.45119425044712486,
      0.9178467940333748,
      1.712426047746577,
      -0.8418394662146428,
      -1.6391098120855139,
      -1.0678013745414667,
      -2.0192717056087033,
      -1.7768156906135586,
      -1.6280091982782272,
      0.4196629092118528,
      0.2080156689871622
    ],
    [
      0.23532939741277617,
      1.1019530328472862,
      1.0749516355283195,
      -0.8806521504215834,
      -2.812200974368532,
      0.8465946728301263,
      -1.073345462758227,
      0.8471731451078033,
      2.6897053615359887,
      1.785521691177385,
      1.0320348128864043,
      -0.0271960773490911,
      -0.32584895292504573
    ],
    [
      -2.326689188880477,
      -2.631283059497172,
      -1.1974701622120842,
      0.3861098435198031,
      1.5707022355699738,
      -0.8259871235589619,
      1.9364307180765203,
      0.5735087019002042,
      -0.14943394886800107,
      0.28516671147284317,
      -0.8286715482620194,
      0.45476297787772463,
      0.03490921173674793
    ]
  ],
  "bias": [
    -0.28301043120886554,
    0.5927307774873013,
    -0.3097203462758297
  ],
  "means": [
    29.052199409132026,
    47.74248297840966,
    6.697556387783198,
    78.20917183487522,
    89.64106561004182,
    9.347515070619153,
    49.15697242574312,
    57.11860133992217,
    0.1044255319141183,
    0.08790317451924973,
    0.051280526538650645,
    0,
    0
  ],
  "stds": [
    24.71422624573909,
    38.38562398364753,
    6.9489920756892305,
    37.63322593379531,
    79.52624241607207,
    6.392162598394166,
    51.50165533670291,
    44.51520857932135,
    0.12074722008666586,
    0.1008796731618439,
    0.09072248917359073,
    1,
    1
  ]
}